,Ad2/Ad1=0.001,Ad2/Ad1=0.002,Ad2/Ad1=0.003,Ad2/Ad1=0.005,Ad2/Ad1=0.006,Ad2/Ad1=0.008,Ad2/Ad1=0.01,Ad2/Ad1=0.02,Ad2/Ad1=0.03,Ad2/Ad1=0.05,Ad2/Ad1=0.06,Ad2/Ad1=0.08,Ad2/Ad1=0.1,Ad2/Ad1=0.2,Ad2/Ad1=0.3,Ad2/Ad1=0.5,Ad2/Ad1=0.6,Ad2/Ad1=0.8,Ad2/Ad1=1,Ad2/Ad1=2,Ad2/Ad1=3,Ad2/Ad1=5,Ad2/Ad1=6,Ad2/Ad1=8,Ad2/Ad1=10,Ad2/Ad1=20,Ad2/Ad1=30,Ad2/Ad1=50,Ad2/Ad1=60,Ad2/Ad1=80,Ad2/Ad1=100
dphi=0deg,-0.3502693887460969,-0.6672239687146586,-0.6049341623713232,0.033072612742405104,0.6748198347648978,-3.0725284256512007,-1.0340246239904178,0.15022343906857877,-0.15863111753027132,2.8129960633630167,-1.6767131741673251,-1.4642349450243421,-0.603037118832646,0.8200835998086268,1.9005546135890379,-2.1521350894400393,-1.1992057415511215,-1.0061387517095426,0.5190031110663793,-0.017082215602160437,-0.1149078579720575,0.18959262599897375,-0.09791399304748459,0.12813076172301202,-0.14608662113714818,0.06967520261228365,0.05568093093557192,0.015004186521932427,0.013981641690741233,0.020862125294459702,-0.013434710895103074
dphi=10deg,-0.2616882726244898,-0.6313442734252162,-0.3337617535995157,0.15913839149771675,1.7305399133461188,-1.6108502363460322,1.0161344888801096,-1.8669799956575093,-0.04123813608445695,0.4421810761476594,1.657797080263922,3.447197820487766,0.34422983269250756,1.2107746594008106,2.8546953929409913,0.8851776006024517,3.4294405336624827,2.844847851085293,4.602881784667884,7.216850726904404,7.656991396251587,8.029339114220669,8.480808352475764,8.76601990683118,8.947225587177687,9.620955603188875,9.725725291863244,9.833275830150736,9.8276597988868,9.875535626988283,9.913393335027509
dphi=20deg,-0.1598652416996328,-0.3814166387907996,0.37259610931298776,1.465734195188655,1.7722845580357984,3.6993562396361575,0.6466055277955401,-3.204819330763244,0.9037147052861746,3.5237825307454966,1.2869551078393076,1.8354599692880547,2.415155612522431,2.250747495707586,1.877824353418028,7.40747571363551,7.609431134711482,9.535865322096516,8.694068661307094,12.981426286639511,15.623223663957269,16.865389512832248,17.007071839746942,17.70668212269719,18.401183668676524,19.05489572479525,19.387445992300343,19.607807487052,19.679004114472708,19.773807804849323,19.757426401526338
dphi=30deg,-0.15153598502864354,0.543004456128831,0.8342712508046369,1.607510916473062,2.5769293969819995,1.7007599965234133,-0.42461196304414445,-0.7130170441228583,0.2586006684783088,0.5770638611190435,0.7844793325320161,3.6648402118661805,3.1223342525454725,3.216797413715129,6.2160682423282845,10.554577886805152,9.438924499540477,13.20351797318468,15.794918347834576,20.204295383106746,23.020951030759324,25.00844689387112,25.570866134102584,26.8293788359474,27.343143195454847,28.626820180803335,29.10281293602787,29.45316588282228,29.52459436441938,29.63314115964573,29.67578117867976
dphi=40deg,-0.1318732478360219,0.6878591869666969,0.7501876127600464,2.2293558504458777,1.6958786862931736,2.7098158178077396,-0.2678216820839128,2.2614879113727113,1.2003455176584883,0.16961981820997607,0.8626112431609559,2.373255348723974,2.9355120619099413,7.037022253442936,10.389472411462988,11.433302390840248,14.402384681334754,15.868195330543173,18.803655329044002,26.210107595161578,30.343781857818648,33.618867278657284,34.7852645808156,36.05022666692417,36.619079779510706,38.25056269090973,38.80133870463332,39.2760888283992,39.41976937489698,39.50252006893874,39.67966740782498
dphi=50deg,-0.18132427467886064,0.30341763580392506,0.6801841464553129,1.0593850297869691,1.1728513337569877,1.1454139537721477,0.18860791631802679,4.163632355339216,0.8085347646365506,6.060813843150117,2.6088886117004493,4.168748158779498,3.92533177464018,6.9616974818438475,9.797965319671542,15.250176913356887,19.574443101549456,20.153571697787722,22.892908672747428,34.05034710832135,37.49089794740876,42.370601596036515,43.57167729162704,44.92068827683805,45.976530634568725,47.813155505946725,48.60703268306547,49.16570505768742,49.313620567659264,49.474290554571986,49.55603030898653
dphi=60deg,0.6092690459999351,0.014357404681887348,0.3275744872650562,-0.3407895152711846,1.4899038271552358,1.403444416203835,1.285096535683583,0.8125497633205353,1.7264966205345682,2.3797297306610012,3.2461917880277933,4.151014424856532,7.738121208383741,5.5076530161513935,11.63504335493622,18.841565954836025,20.226457487891743,23.801428463892027,29.12422041117235,40.35456223041965,46.71930105564901,51.287098275006194,52.57879194963897,54.19249315568282,55.00810535841002,57.539467519008866,58.35796177997778,59.01792426287981,59.190099277428445,59.36850423881624,59.48162245085742
dphi=70deg,0.09992033570222097,-0.029072440604375974,0.3105048751464431,-0.6781938360486475,0.44322435889986117,2.411627957154811,1.7766656925598248,3.258186293568997,2.43851346633953,-0.13808271289984417,2.7078175686672377,2.2266131609489164,4.0993449870709195,8.912004926385926,12.21431432037738,16.741244092121566,24.169475735052906,28.972003646707435,33.67671980123725,47.29468872816676,54.28119720225431,60.15664942810559,61.78631502301632,63.5505469439261,64.79203000662483,67.51940856578749,68.19823565443436,68.94937484091481,69.1360630698371,69.31483857760973,69.51121950864446
dphi=80deg,0.10017566640231051,-0.011166912236921218,0.017986842013253353,-0.925667593435395,0.12407722915796389,2.4624863985902623,1.5060416733183308,1.1753290970717956,3.58027806767044,2.7628100809072182,4.200640730386701,4.46227575719018,4.177459346127262,8.888233507928266,12.769799097399236,22.16144695409781,23.464435724840303,32.26582581256488,36.615786423892324,54.401767056346564,62.50215402996587,69.71543973203867,70.50874820569791,73.16859075397943,74.40001683128592,77.24516963625993,78.20513045273701,78.88093370059735,79.11903694581427,79.28368213038677,79.43347050311286
dphi=90deg,0.11298303340959423,-0.19916774006832866,0.34101308595042923,-0.8051091264252705,1.001120086092066,2.6583394714680124,0.8108763077947769,1.1695376668610786,-0.8527038833752024,-0.04467566169679489,-0.8882038059190305,4.067652829582011,3.4506294408753377,12.211385965630129,16.24461230363417,19.774093866946853,26.888066211275603,36.35404009804372,40.869518682032755,63.361010914718584,70.96940341379651,78.56006259607841,80.46525387559682,82.81405656108804,84.373535841545,87.33240056237787,87.98670557846592,88.86343127015034,89.11251031312834,89.3120596710771,89.44393964266564
dphi=100deg,0.10787489380137652,-0.23181872008437532,0.1571066379269555,0.6848120915093869,0.5021332511159287,1.2715981453455911,2.833096761437071,2.7450083303189525,0.9457516933638848,-0.1360996082122551,-1.174730324959261,5.2389843330255035,2.419683390438163,8.412015282446173,15.781219305521528,22.183769493406082,30.15766563669736,37.40509548784879,47.25993581418817,71.29989911552667,81.3076085458209,88.27763748704446,90.7581458306852,92.46238926947278,94.40937032280978,97.20615609826561,98.16676163349476,98.86649539202178,99.03217104310569,99.2834772683989,99.50906068573295
dphi=110deg,0.058375849289127306,-0.003900089328321874,0.0942310444894727,0.6341175119890974,-0.09677037762746962,1.2102298013624044,1.1852244437275137,0.631111461016655,4.251782761068367,-2.6391990143152726,1.6316966003410343,3.365406946875474,3.340111793284143,11.97112738987226,12.723506938794674,23.86040860158391,30.82170273548734,39.870838074864736,49.10907108628102,78.4870083468629,91.5529983974385,98.81090850097796,100.76392405609701,103.176003739568,104.61375905685017,107.29034396588384,108.21176708010775,108.94624931673232,109.14348600553237,109.35338329309029,109.41506943771756
dphi=120deg,0.061803682415950405,-0.005995723816124471,0.24789795230346412,0.5842379894182984,-0.6476623254614234,-0.5076965780525632,0.9189377976811114,1.692724428123562,-0.2630013508008541,1.499707023994988,1.3281620582356666,3.1625817477965885,3.7579598766764146,10.242873367838037,16.973299899407106,25.37433495115497,26.23361556278338,40.67311385760194,48.223325706170776,85.37856988965468,99.98714459041952,109.33291391176787,111.139978865601,113.12912158573272,114.84482821667471,117.48843461870072,118.40078976370116,119.00167555480917,119.1793135383459,119.37559187399044,119.53827472606457
dphi=130deg,-0.03582483591565528,-0.23265275340244018,-0.04793388690903209,0.5084201602888646,0.05469598335934942,-0.6512069368537146,-0.029751586019322603,1.1904562768581637,-1.1364348498277845,0.5747312284872639,1.8407969296178353,3.8641937985932646,5.4806751640411004,8.51216212364802,12.907961684435074,21.338543758704503,27.728191792426486,34.88487024127083,48.06104314128063,95.00284952555351,109.85195463043038,120.10832772200773,122.04273266088518,124.16097979621685,125.34243573678887,127.72474441918743,128.57994155687615,129.12541834065115,129.2965155481642,129.47006418183412,129.66413745074524
dphi=140deg,-0.8516656942271067,-0.027759760901366316,-0.22981922553641962,0.11810165622701398,0.09376794359898033,0.015332516773672204,-0.7974815391675683,0.33074967400900357,0.9395812198787381,0.7811626029346996,0.629834315948297,2.2854539824096296,2.574148190436469,10.982266362197754,11.848757217040768,20.474417985929666,24.431807525865864,36.739884687105686,43.0497423516476,96.46628648296694,119.13590106675714,131.67727894460617,132.81648260143965,135.18653993952475,135.94570768059342,138.16705171558493,138.6328595921586,139.24593992050856,139.34951293227087,139.56884215021307,139.6022597551764
dphi=150deg,-0.8079629153211594,-0.015150850409574557,-0.549946662435163,0.8290906148114308,-0.20017112652512306,0.4312635827437912,-0.7227098858733542,0.8230661239915874,-1.1902777463800944,-0.1594534472903033,-2.6478902906712545,-0.254763627530776,1.7316419588332774,6.04671938810739,8.366228974855455,17.13769206879662,18.553119845262152,25.07385121328618,33.14386320187118,87.83950707670859,122.85191619488901,143.2818202434963,144.41752028257787,146.30446787075684,146.48643254480504,148.41925555862377,148.99848120499848,149.45454873275057,149.58412334346156,149.66006052406,149.685129566218
dphi=160deg,-0.9115301758529587,-0.011838525901799228,-0.3927864623212175,1.862568575453165,1.575809183062,-0.6022513296811293,-1.630534774939929,0.8324115458050783,-2.1869379131109037,-0.06153890872602119,1.4550044848246235,1.33311679192962,0.6514547493135092,1.6017926432904523,4.786037760405308,9.021530906623632,14.384487549031507,24.511887151426272,31.440135259303826,74.00004401030257,109.10994733913101,148.02466601573371,151.79938687796061,156.8710859519045,157.96489919056359,158.85356607426064,159.21791355266134,159.55440873173578,159.66117655397125,159.7213587464823,159.7845863260207
dphi=170deg,-0.7671814596022507,-0.8275095744016873,-1.2610740138437164,2.021079835830425,0.3397038188293953,2.5859024994646695,0.3096005648366765,-0.7401722400563971,0.4791279774534812,0.7095370294363197,-5.253437494969367,-0.12296002761229201,1.2443668125551948,5.075355638767787,4.750826720805664,4.834187333755594,8.508314911375802,12.760456040810292,12.39774990872605,45.10643280668184,68.0637303183403,111.29272553960071,130.29625958483496,147.7984669120601,160.21686011131956,169.56054551601298,169.70218354822725,169.83889840716483,169.83987885035364,169.86599609872712,169.8441070597318
dphi=180deg,-0.8431773596369285,-0.6842556973952938,-0.8370595706018684,0.22256344709450065,-1.2729592642743803,-1.1167168408402863,0.15920153749381427,0.8242025425333168,2.391792754912713,-0.2623160133303534,-4.232447611710327,0.9018391679388194,-2.6287205694754117,-2.744194160690846,-2.0967345540560114,0.9481251610923814,2.156791332871157,4.120723203771248,4.781619852367467,2.106452598390976,8.053286787017466,0.5735526744491304,10.604081057221736,-7.189421469528096,5.75423270845845,0.3241380921532256,-5.742042832810249,1.4521074059597128,-3.2109464544718866,-2.863625754847266,-1.7947622646402486
dphi=190deg,-0.7724060750295723,-0.5672175740406019,-2.7342850124320393,-0.575417888525545,-1.3328919352397297,-1.181960986255469,2.154188228144198,1.7881579643647028,-0.6348474791956057,0.6968154663512016,1.1847939929418956,-3.0006024474794946,1.8610882861951854,-1.4958604738155261,0.505488545701722,-3.2277843850054007,-8.395528511527548,-6.615378519218022,-13.384626915261814,-38.82167607293597,-66.95236898717663,-106.83431607522627,-122.15282311456434,-151.1989133941133,-158.01165748312295,-169.51499967686792,-169.68841802330786,-169.8230526463433,-169.76958479968903,-169.8915035989581,-169.83131833850464
dphi=200deg,-0.780886790419,-0.7326899588151877,-2.2441011414925045,-0.5618484322195667,-0.7063733104762354,-1.9830491374639228,0.928264707564346,3.07981835040948,-0.6370111267209817,-4.769939099593984,-2.7488789998750374,-2.9888149576298955,-4.6857801223383975,-1.814190980728684,-6.804728264261264,-9.250538536999631,-17.144558389501288,-18.265738959631523,-30.109117249776883,-69.79161546462477,-109.86172832090837,-147.68418900317428,-154.3003085800096,-156.20741124037062,-158.0257974758468,-159.00821647181252,-159.32678413591168,-159.57850855539928,-159.6637806036882,-159.72782511870673,-159.84000083580702
dphi=210deg,-0.6206690291773886,-1.3225580860609465,-1.6003769159469647,0.0765697549712233,-1.1766146290672732,-2.1916927282253758,3.580156119628257,3.3871905170104397,-2.518706520157457,-3.0280598829209078,-3.232771429098223,-6.954261758699156,-5.878053780528723,-6.95883540622426,-5.8266279851006,-15.328426422284151,-18.690522605415257,-28.743699269703423,-38.52474401314771,-86.86530863236973,-123.9015707918354,-143.3356411481918,-144.18388112588926,-145.72925164624937,-146.76732747851173,-148.58908631442435,-149.01564032939166,-149.35642918522643,-149.49095067324487,-149.63426793761536,-149.7037743723935
dphi=220deg,-0.5560056608774777,-1.2711979455715259,0.08203124893093063,-2.0354172295070874,-2.439917505880865,-0.509305912677819,0.8634047948129406,1.0913617037051002,0.3815439245233895,-2.941318878191779,-2.893108247708187,-5.505520442494663,-2.6055335713361276,-6.670803660982524,-10.360247555943163,-15.952970160014344,-23.156574914891692,-33.720646552172035,-38.97022040711136,-96.24035522607697,-121.2080897287834,-132.09592211754313,-132.90170777695826,-135.42689149627628,-135.93573949949337,-138.105092299437,-138.7653043088257,-139.30831679042362,-139.3576786493236,-139.55763538444782,-139.5933805686344
dphi=230deg,-0.42550907376982283,-1.261266809805881,0.2014685211914312,-2.09802695944764,-2.6117166407231758,-3.249936248006429,-1.7829139053058243,-0.5064319303206871,-3.2848111721002398,-3.1456626812951556,-3.3518827681538985,-4.506027198040129,-4.534620288665149,-7.752136643382105,-12.059574640571727,-21.980318646333885,-27.083652887736218,-37.719686296993736,-41.97499632152197,-92.257828485125,-110.22529962901817,-120.30322948583857,-120.8182642783781,-124.04787519334995,-125.38895880334739,-127.69517882095532,-128.44191572240888,-129.1206541529661,-129.26964906327615,-129.4436283869716,-129.62305844619638
dphi=240deg,0.08544522412929954,-0.13755270186304125,0.1927650905023287,0.0067637890827214765,-2.935669549819662,-3.172418881554627,1.5931997507162223,0.6649986156672861,-0.9084755992741759,-2.79895899454672,-2.8527652890229884,-1.5005397086716457,-7.989177137472624,-9.283467363874843,-13.683608511093873,-23.189403602446024,-24.73055403952274,-39.59272768064128,-48.489686508487694,-88.07997458467024,-100.75873780683553,-108.6339605632301,-111.2274346751689,-113.05411245775345,-114.52891555675212,-117.43533947267102,-118.33648534632061,-118.94985999902305,-119.09219720874762,-119.38642344372433,-119.49127384908942
dphi=250deg,-0.4138467653731623,-0.20434950413548159,0.6506851161037164,1.0504388479056812,0.2196824246157914,1.8081014949202074,1.0427200244494799,-1.6097951034882247,-2.861841839873527,-2.0174887674024147,-3.2963665709897105,-6.255916713295636,-3.4971093931481545,-12.403960166361843,-15.668398100758123,-22.381684266616237,-29.030300159349252,-38.22492890952765,-47.93630869799483,-78.08688777685246,-88.76255970112226,-99.31705622270012,-100.45131212505254,-103.17876237403378,-104.30742761807103,-107.24180755006431,-108.177110643322,-108.90785975304928,-109.03203441208079,-109.35918288263073,-109.44629598859997
dphi=260deg,-0.6242677147417299,-0.5876830750793042,0.6540054879543606,0.8781002340857794,1.9209990541351976,-0.9153251346558314,-1.567255158059633,-0.7694106767709024,-1.5927574920900787,-0.5557039486108092,-1.7374451205783725,-3.8996062109675824,-6.528562291219687,-9.05347274624532,-12.326096702751254,-22.193794963676144,-28.564495084103026,-36.84358846646736,-46.39837852526484,-68.84297688980347,-80.4632900679331,-88.84662286360245,-90.61521841847836,-92.89521909037259,-94.20318246639064,-96.99811939821001,-98.12591496247926,-98.80456522252335,-99.00552100156723,-99.29750513669222,-99.46640595813862
dphi=270deg,-0.3982283742413165,-0.8894387697488203,-0.08509904050549504,0.9150734591540995,1.2002360554961944,0.41190070547460983,-1.3581988616701661,-3.5699807436177875,-0.43175307783923245,-0.8309718338402335,-2.1841150587883345,-4.586311400251128,-5.04007590274971,-11.209689931949676,-15.78275983255118,-26.701818339437594,-28.503459220568445,-33.52345331860677,-42.358753313055786,-63.78120803921439,-71.58611968566166,-78.60729617988176,-80.74400167603088,-82.73193279520669,-84.49991740481207,-87.05482158281399,-88.03886417371042,-88.88596861381853,-89.03606589654026,-89.25826549789036,-89.47535683747185
dphi=280deg,-0.4929207061785771,-1.3548788203329025,-0.7156063855441198,-0.025387709674052177,0.8569720586446921,1.467571797997876,0.08630742708302394,1.1955618547193312,-1.766794880941537,-1.393741649012712,-6.58781359688323,-4.331231984117799,-4.92682517467908,-5.207671136481975,-12.395022171805527,-22.2298571143374,-26.58596210051961,-36.050491236440756,-37.028716137562874,-55.621028889919586,-63.09954710879569,-68.9501318220966,-71.10260926623464,-73.11603385687309,-74.7392973002892,-77.19294907022476,-78.1680386293072,-78.84192461494396,-79.01618623625427,-79.28711156718339,-79.42002915782284
dphi=290deg,-0.6405156740888842,-1.2937236241074799,-0.7288355836077096,0.08970477525110702,-1.3467784970527585,0.978668355740233,-0.6217232677655466,0.11586539559939066,-1.9790193531919613,1.6851090476974788,-1.6772741486902578,-1.7817761364775457,-4.793345853227778,-7.152315921553631,-11.749887777719977,-19.761126323784012,-23.79970095800074,-27.591294927489585,-32.28228558004147,-48.79278323538102,-54.35057043866681,-59.85742366729269,-61.72199414268699,-63.34468819806915,-64.74596429316472,-67.29791903493295,-68.21526024775082,-68.91153815145417,-69.12744527716283,-69.35288024786699,-69.51687510395507
dphi=300deg,-0.8962868726216786,-1.689097929002859,-0.71707665468758,0.1980699634457018,-0.87998172694399,-1.186328022391032,1.9879785138803536,-0.8130266971463882,-0.9322025568574595,-3.5414348877001327,-3.4201330315478122,-4.455318631353936,-5.780753361496732,-6.179851251922944,-9.95981114556107,-19.411352869614078,-21.156895695850064,-24.98041010860409,-30.203950937688397,-40.432020938250325,-45.70289559862177,-51.07385260789348,-52.826361883664035,-53.99414027954504,-55.38379634180456,-57.553534430597516,-58.31147438465254,-58.97939765303315,-59.20656571028268,-59.391315642511756,-59.4879940687321
dphi=310deg,-0.9289489485161375,-1.7570921432918565,-0.33997431814765455,-2.6076767735231408,-2.48344034629695,-0.9046334594790509,1.4518003722971913,0.8315637146663793,-1.356948551143252,-0.9440797571184578,-0.5611658996003598,-3.613834434443259,-4.7282128410536135,-7.3939221568371485,-8.013702412409753,-17.813177936401843,-18.864481363301888,-22.797320352421202,-25.416855977788327,-33.090530747956066,-38.20012318509197,-42.323387557561766,-43.50560187570767,-44.95125279328563,-45.68564806531971,-47.70652478748038,-48.52799750834006,-49.126231656460604,-49.263624295542115,-49.46074345578068,-49.56578128389833
dphi=320deg,-1.3936871523035963,-0.45190249046034775,-1.0337842664516652,-2.143199193844304,-1.886797973714383,0.22259944255983105,-1.6499176279166536,-3.6295592790303095,0.12637543143526492,-0.906589823845768,-0.4234177049395008,-4.251780794767603,-2.878126503383523,-4.128637146544574,-6.490282717544284,-10.233820463615931,-14.21259360917535,-18.93511789570117,-20.79089207692306,-27.259096382470773,-29.46959951957735,-33.65778662417931,-34.63721966345757,-35.886677863780534,-36.706153271572035,-38.13456806440995,-38.720417174392004,-39.26258961620625,-39.3882783136416,-39.54631125024044,-39.67988132387088
dphi=330deg,-0.2906203667340945,0.1289481411726503,-1.1368138815023212,0.4781385635434745,-2.5182559444972488,-3.1287439329860303,-1.6172127195240869,-1.8122403551730155,0.21651674993116668,-0.36366919884342047,-2.1434222544934554,-2.6743397906911763,-1.7810560852244146,-4.312242078352385,-5.896217863390957,-8.49819763615813,-9.218871186296102,-12.501905142958835,-14.34760539581115,-20.69188967806406,-22.64318065200387,-25.231531938473026,-26.070811838382493,-26.89679091568345,-27.371323852508834,-28.704892188039242,-29.043669538450953,-29.470586354647796,-29.53810060364393,-29.65566176556161,-29.705067665689096
dphi=340deg,-0.2685008591074268,0.048609312357600305,0.2853907934677973,0.09001826182743419,-2.399911815754951,-3.17289396690462,-3.3675199816291768,-2.026422199127383,-2.9829130563495356,0.4236401736527948,0.19619457299725343,-0.8562303418085632,-0.8807150129827613,-2.6055146449582867,-5.458802466498797,-6.598670455654129,-6.567050732729891,-9.044713271113167,-10.197907795005344,-14.563353415817954,-15.086813347716522,-16.673537189306096,-16.812267429714964,-17.932732993608177,-18.18696599624994,-19.058845929082633,-19.42907607849048,-19.594819301068,-19.731720447129177,-19.74848528572246,-19.769041312736118
dphi=350deg,-0.3521017359733127,-0.6941200405794896,-0.2384075133072999,0.6610600439794747,-2.2116674757543193,-3.0022491444724615,-1.031421215061191,-0.816554337286951,0.2087996993194658,-0.8678364706825428,0.579126879545049,-1.1272365733865697,0.15719031292589739,-0.9933984772114236,-1.9052822361319495,-3.9599829112974154,-4.727735946369181,-3.16376295079133,-5.225631924828586,-5.932221842921297,-7.218010664049919,-8.043483795037348,-8.370549262404992,-8.467737097678755,-9.103289569802303,-9.497713654430282,-9.566804980150968,-9.803729639274259,-9.76117608155974,-9.896531905914848,-9.94239863302295
dphi=360deg,-0.3502693887460969,-0.6672239687146586,-0.6049341623713232,0.033072612742405104,0.6748198347648978,-3.0725284256512007,-1.0340246239904178,0.15022343906857877,-0.15863111753027132,2.8129960633630167,-1.6767131741673251,-1.4642349450243421,-0.603037118832646,0.8200835998086268,1.9005546135890379,-2.1521350894400393,-1.1992057415511215,-1.0061387517095426,0.5190031110663793,-0.017082215602160437,-0.1149078579720575,0.18959262599897375,-0.09791399304748459,0.12813076172301202,-0.14608662113714818,0.06967520261228365,0.05568093093557192,0.015004186521932427,0.013981641690741233,0.020862125294459702,-0.013434710895103074
